"","grid","property","county","pixel"
"1",-0.0022613003660897,-0.00815618455140594,-0.00691218479858529,-0.001642083631242
"2",0.00150485154390854,0.0043913266336545,0.00175808910915845,0.00164845701951913
"3",-0.00576860966263957,0.00528069962095377,-0.00178576812488782,-0.00442777601593258
"4",0.00129876161996589,-0.0127992903890049,0.00139178892649353,-0.000526034649749645
"5",-0.000313950539509729,-0.00270943047486964,-0.00149028174159223,0.000468793174607117
"6",0.0015036159734584,9.18823929826201e-07,-0.000359151742382128,-0.00139315993788636
"7",-0.00390949005077922,-0.00834437728667994,-0.00939458505162158,-0.00441786168445789
"8",0.000721826708431621,0.00209367524155866,-0.000394533165927233,-0.00195015963564362
"9",3.0163992586308e-05,-0.000922270630080855,0.00485753478334921,0.00229066297722057
"10",-0.00509099886103292,-0.00623683954566531,-0.0041748447286605,-0.000490519250965519
"11",-0.00630947377057007,-0.00144720951631575,-0.00191081304782137,-0.00393796085883975
"12",0.000788006774181161,-0.00186116331710373,0.00238437044153836,0.00166423384200823
"13",-0.000840479247026701,-0.0032823619693937,0.00346752108473651,-0.00224286740564887
"14",-0.0041940906465952,0.00517968337592106,-0.00174157603473469,-0.00257525764192014
"15",8.75869893385665e-05,-0.00579091043040592,-0.00111690265879462,-0.00232858557468929
"16",-0.00400694367801106,0.019001681643545,-0.00234322368551746,-0.00213134803724987
"17",-0.0034324498580687,-0.0133311900186701,-0.00860161799683999,-0.00187882101678805
"18",0.00202750407251725,0.00863569588268638,0.00686150560490832,0.00140070707961593
"19",-0.00310223989246629,-0.00683373882408821,-0.00454232566478645,-0.00206819074860801
"20",-0.00475339398737733,0.000875456681156642,-0.00625259850486787,-0.00293714626453411
"21",-0.00169582270598416,0.00406591741644634,0.00195132427904851,-0.00231454438614817
"22",0.000771814376692159,-0.00285563451425156,0.00296942016253019,-0.00166092817212699
"23",0.000679974518238586,0.00396412093990756,-0.000419690877055278,0.00190253660220925
"24",-0.00687691218186773,-0.0130522644810118,-0.00751897368364394,-0.00516741439452782
"25",0.00285162606265487,0.0029279203120052,-0.000832721643048788,-0.000337397107224793
"26",-0.0035677172773835,-0.0083502143017734,-0.0027815151306818,-0.00238477693188347
"27",-0.00400264515323303,0.00812292443048014,0.000808051180650079,-0.00127554433719791
"28",-0.00267694251228378,0.000610857201143143,-0.00621993820434294,-0.00206324644270263
"29",-0.00561097546611863,0.000777228361224245,-0.00260303044734988,-0.00233988402042655
"30",0.00272607647198026,0.00530783783473579,0.00552520288217189,0.00395415160196519
"31",-0.00616065590632646,0.000762595298012215,-0.00649458416703273,-0.00360002540481638
"32",0.00368322162189067,0.00675728700294344,0.00605310805722189,0.0033741513617589
"33",-0.00468752004704438,-0.00638873869135836,-0.00307951134493852,-0.00546796315279144
"34",0.00233699306678333,0.00741205861288072,0.0042785579936109,0.00370842901091953
"35",0.000259328743886705,0.00631999165329607,0.00350838915437898,0.000290958422529294
"36",0.0012110764387259,0.00272313995833449,0.00370125428336708,-0.00180181225108828
"37",-0.00154355272671985,-0.00483066307145381,0.00256813615691285,0.00130724215233436
"38",-0.00144207355554337,0.00339953086617184,0.00111822740923268,-0.00127635659415731
"39",0.00460821078908735,0.0089262428958943,-0.00228647234424885,0.00105998721082081
"40",-0.00436589124741247,-0.0136636404939132,-0.00167960149771689,-0.00504246885526486
"41",-0.00034959746595002,-0.00729251970555199,-0.00436845849699679,-0.00170484442274819
"42",0.000837374470268659,0.00791453774915548,-0.000596490843092779,0.000141341579095148
"43",3.43068935364354e-05,-0.00100140002911721,-0.00255660093214514,0.0011413708618308
"44",-0.00258326800438601,0.000309654234102851,-0.00206811666359046,0.00111587269284415
"45",0.000615317697520285,0.00213523497046097,0.00144068100874642,-0.000808427222381263
"46",0.000924866357726154,0.0101626571321911,0.00426657065747899,0.00445987766437255
"47",-0.00497690632846055,-0.0119139201555967,-0.00254254319946481,-0.00554276965416527
"48",-0.00337765667891347,0.00278418514639909,-8.92584812617319e-05,-0.00303300441212538
"49",0.000284151787477952,-0.0125700977488005,-0.00054486867272719,-0.000754324622150125
"50",-0.00302456267721401,0.00112633822028034,-0.00143602440577208,-0.00192680250003571
"51",0.000902838873435421,0.00810016324863198,-0.000792813614824108,0.00123318904209558
"52",0.000909279683782942,-0.0106448023224846,-0.00148285944357955,-0.00143345897930482
"53",-3.92458949229884e-05,-0.00115624502356817,-0.00411694258105295,-0.00245869318598756
"54",0.000839305534984403,0.000738797920177873,0.00395741453633476,0.00022787820498496
"55",-0.0046348630324333,0.00490445583585996,0.00127235920407971,-0.00162143695052898
"56",-0.000426322785330675,-0.00682202134268839,0.000250510361785621,-0.00048967110557423
"57",0.00430084542260596,0.00673958164667181,0.00649034194571167,0.00278288159446601
"58",0.00343549201445474,-0.00137496815063524,0.00177744724317096,0.00189923874735451
"59",0.00250128977097786,-0.0068519662077826,0.000910681019393135,-0.0013677080022423
"60",0.000174512549929645,0.000376895887570776,0.00158789468782,0.00288814380862311
"61",0.00203232828123744,-0.00196429887568532,0.0031302840036432,0.00120349526778162
"62",0.00143475339538163,-0.00681779603102122,0.00246120066944892,-0.000327590387535073
"63",-0.00313829627965309,-0.004383046744678,-0.0056382946418862,-0.00417836297642444
"64",-0.00107476606300808,-0.000405678909364713,-0.000471342123897845,-0.00343440668055721
"65",0.00650602440008905,-0.00464132335016744,0.00336500502729294,0.00302628202937231
"66",0.00235304269347934,0.00871502688529317,0.0085713394544142,0.00174007096549503
"67",0.0063201876065211,0.0140975771676768,0.00167130998725025,0.00270383653541762
"68",-0.000937717152799642,-0.00301536643893519,-0.00037623838840776,-0.00265724342876267
"69",-0.00119517704875787,-0.000311205706114237,-0.00265273902682351,-0.00239263077495233
"70",-0.00150759014833682,0.00555438130479327,-0.00847059223269893,-0.00320370044841334
"71",-0.00210437537479069,-0.000436508613373091,-0.00424701888541874,-0.00323893513926016
"72",0.00247441307015038,0.00355454971679854,0.0025510549910638,0.00101291886734841
"73",-0.0014709505042107,5.69088281076515e-05,-0.00137728100832397,0.000935487698315531
"74",-0.00444962697947347,0.00346557551883279,-0.00461528904826192,-0.00171877137139452
"75",-0.00369695915349508,-6.64436700916655e-05,-0.00206261714496245,-0.00112161371371785
"76",-0.00294072283375296,-0.00235444208709719,-0.00231304844227553,-0.00256256766784051
"77",0.00392884804036593,-0.00274918440475561,0.00103128215138701,0.000948955177454261
"78",0.00800728864246994,0.00750891283034542,0.00568325947682312,0.00565531080955311
"79",0.00441159081810131,0.0104532907063863,0.0084725056190619,0.00417514255300536
"80",0.000863756801195405,0.00397261386475857,0.00498783378286313,0.00157865377865129
"81",0.000265619515777546,-0.00355073588432835,0.00117215463562005,-0.0017120447888278
"82",0.00155381299389588,0.0224944628658683,0.000297642768446713,0.00124188807994835
"83",-0.00152238468600247,-0.00615603721848641,-0.0036730468988151,-0.00394287091155752
"84",0.00741578900663277,0.0131125929709753,7.80800148944827e-05,0.000990694140056292
"85",0.00251404432657727,0.00512013785603968,0.00331939070622021,-0.000484545493546562
"86",0.00591038613162102,-0.000544552795942146,0.00151815324277811,0.00103009863498241
"87",-0.00169117409532442,0.00163083432380366,-0.000896971963916075,-0.000620815025224005
"88",-0.00281279791254748,0.00294199425427901,-0.000400245559641396,0.000149655771612909
"89",0.00646492871854095,-0.000112554609406935,0.0043211974210023,0.0026664223346184
"90",-0.000167382708847974,0.00124731554045435,0.00573813253233868,0.00243360792890841
"91",-0.00477984170570747,0.00502789807616135,-0.00207993218190354,-0.00535581610925378
"92",-0.00245747959035105,0.00461337079132345,-0.00156588195175493,-0.00321360891429085
"93",-0.00597471429281579,-0.00909403456940738,-0.00811370609967345,-0.00587046662433465
"94",-0.000377795254788494,0.0095122263971447,-0.00378756923594432,-0.000548744054083927
"95",0.000187578163758964,0.00265058399180242,0.00154223802858659,0.000374258029319952
"96",0.00249178243561719,0.000950060597059578,-0.0034446863362276,8.45032715734145e-05
"97",0.00426255275502463,-0.00290500601923894,0.00327664404610247,0.00139594432930167
"98",-0.00437580968282774,0.00684070594935092,-0.000682572418018772,-0.00115165659386281
"99",-0.00141535953507406,-0.00469127910450117,-0.000384353139005702,-0.00268557395134878
"100",-0.00878538185860472,0.0044920521029201,-0.00658424748534365,-0.00640927762099115
"101",-0.00124611402183731,-0.00374343903831476,-0.000701830702939872,-0.00146077035136026
"102",-0.00175954109490117,-0.00283084762986171,-0.00413957496374433,-0.00263911308506158
"103",-0.00196482072342724,-0.00671623930602603,-0.00311711185420654,-0.00135145865977297
"104",0.00667642151373991,-0.000444973378920155,0.00761151614808713,0.00233734520083651
"105",0.00191230415719303,0.0132560027416593,0.00648390050408316,0.00561424203343187
"106",0.00271357893027091,-0.00768423046168678,-0.000369188385270083,0.000109733526554254
"107",-0.00145333804608529,0.000481198233219116,-0.000684077048153438,-0.00175290944623185
"108",-0.0103944046027873,0.00109219961728615,-0.0113241613617705,-0.00627115120088109
"109",-0.000688344902197383,-0.00147073991114466,-0.00316497347303179,-0.00190847164726572
"110",0.00408057637045081,0.00288450539259914,0.0118784842091002,0.00344202781269187
"111",-0.00411916532453719,-0.00147440871221938,-0.00570558878023128,0.00141526833405065
"112",0.00285966610312623,0.00431420585582722,0.00289578761301735,-0.000873165713939666
"113",-0.00034722399778149,0.00403209555791552,-0.00318805545369594,-0.000618595605845686
"114",-0.00172568676507031,0.00477777153748339,0.00268419468635437,-0.00238474000766121
"115",0.00115366242233458,-0.000416606911196292,-0.00223776723287234,0.000751812836813463
"116",0.000124263871160791,-0.00110776590596026,0.00203103330668802,0.000457126972564514
"117",-0.00181196362840268,0.00477952520610232,-0.000862913094903899,-0.00195151519370329
"118",-0.00105513673390705,-0.00608345894492666,0.00151387678332465,8.58866367551246e-06
"119",-0.000952361978747993,0.00479389018270054,0.000592226521107828,0.000779074600764519
"120",-0.00340802378764373,-0.000884963505006853,-0.00475326134783056,-0.00371895084929143
"121",0.00479018026333448,0.00140123440445481,0.00170825967452152,0.00242691739212166
"122",-0.000382148473086175,0.0034655946361305,0.000619835304256805,-2.46752499968531e-05
"123",-0.00272505370351799,-0.00271056350969455,-0.00489807618805928,-0.00386208234651732
"124",0.00664352246768586,0.00694661862892384,0.00899511639649183,-0.000439351932665281
"125",0.00444178968320198,0.0059906400336714,0.00667483289787864,0.00257001073535985
"126",0.00261454645934225,-0.00360466588624653,0.00464348849236477,0.00139952263519344
"127",-0.000287238098518916,-0.00905676662331777,-0.00543484137452102,-0.00233971688872561
"128",-0.00211490670073193,0.00443806592055823,-0.00141315289851686,-0.0018047916447873
"129",0.00266358840010676,0.00532924304214684,0.00046503875707673,0.00340636194417967
"130",0.00574987552048014,0.00694324741118001,0.00894032185141294,0.00405300944690342
"131",0.000324239214815896,0.0108562819873861,-0.00086571178535421,-0.00125455614842602
"132",-0.0051329978097176,0.00414138249102085,-0.00185211584500865,-0.00227472875645417
"133",0.0024444209811245,0.00160376628478264,0.00253189360357263,0.00152724835723192
"134",-0.000165454112846537,0.00362937664057631,-0.00346667825543406,-0.000653301998361187
"135",-0.00290089011644915,-0.00616427020105906,-0.00659745640151531,-0.00178515033815961
"136",-0.00124392945448629,-0.00383483880269888,-0.00138960284752294,0.000969154660042557
"137",0.00225448056015442,0.00920030359368865,0.000327060243949224,7.16986019525367e-05
"138",-0.000114071976222962,-0.0073853669504364,-0.00519617208050539,-0.00338029103448368
"139",-0.00101100925090488,0.00448647844731283,-0.00520960631610379,-0.00127302069573004
"140",0.00379869093494948,0.0153239559966945,0.00469728029938071,0.00345431387819933
"141",-0.00270050553961694,0.00441318046327627,0.00090213346101644,0.000462299415700746
"142",-0.00441230221654978,-0.00131583502631952,0.000227354350467642,0.00078191277871621
"143",0.00137108388372058,-0.00476199248380327,0.00131566322911926,0.000595141831891952
"144",-0.00320649845789712,0.000732224162388726,0.000515808051838026,-0.00287784399465715
"145",0.00177903167844701,-0.00455596450886283,-0.00558714845528458,-0.00206203363660839
"146",-0.00353949222772578,0.00179499060027104,-0.00187167980390747,-0.00443013207413477
"147",0.00103046828653017,0.0105765951398043,0.00160419716159627,0.000385765999341765
"148",0.0029591399002798,0.00211168368757121,0.00566418786470287,0.0020807050333792
"149",0.00107977986849373,0.00420636593484537,-0.000603402395936247,-0.000298691375229839
"150",0.00250695689490514,-0.0103988131743597,0.00516038459338864,0.00189545192621932
"151",-0.00245360659111671,0.00986377499246439,-0.00149874209591038,-0.00126735497061852
"152",-0.000643231749859365,0.00692100721865031,-0.000841504628805449,0.00150702108426774
"153",0.000443156452034741,-0.00873535167948395,-0.00108207840608859,0.000272928205951987
"154",0.00260866956690197,0.0030559583785189,0.00277610193903914,0.000882642474226029
"155",0.00198982799798779,0.00977959583909332,0.00236148189135922,0.00157534914533049
"156",0.00163445552490221,0.00596665119415984,-0.00171244133298993,-0.00232282631782483
"157",-0.000998345550323685,-0.00358840702638222,-0.000695875366471147,-0.000736736523682816
"158",0.00325290252361819,0.00621170454672094,0.00338713347040386,0.000359991080973966
"159",-0.00116251336497575,0.00734871585230046,-0.00113458109695781,-0.001346962529771
"160",0.000504795550370668,-0.0104061955121113,-6.34032924801374e-05,-0.00504800009580367
"161",0.00164203733935678,0.00705477156489056,0.000728787625281961,-0.0010990243403401
"162",-0.00343239786837279,-0.000302321083774811,-0.00379135672794974,-0.00183046034359443
"163",-0.00172122607560663,0.00564285860120451,-0.00318671046210028,0.000956792415845086
"164",-0.00210667410011936,-0.00733484927897117,0.000994076713448611,-0.000977338844810445
"165",0.0015770347108943,0.00791841036980253,0.00619390044026555,0.00326742911986254
"166",-0.00583435333280583,-0.00746217236293751,-0.00161620950602873,-0.00540257552662688
"167",0.00135973192855487,0.00572743405757072,-0.00565183891355998,-0.00134443077568384
"168",0.00593063638062094,0.010008125913222,0.00932704709396111,0.00414096117704337
"169",-0.004103746025308,-0.00370275880252549,-0.00132508549312053,-0.0050396200522762
"170",-0.000615939983672402,0.000757925051205796,-0.00271556217371381,-0.00245343654858861
"171",0.00150068757882225,-9.43069620026223e-05,-0.00196163854691412,-1.49382658643435e-05
"172",-0.000455791292641951,0.00176976062586033,0.000185562732680366,-0.000843595669574175
"173",8.05456749946188e-05,-0.001059180854998,-0.00386560370508026,-0.0034325862594088
"174",0.00328508446141532,0.0117402734589103,0.00414237691086407,0.00513781945794829
"175",0.00124624995102558,0.000882413488354522,0.001723328378226,0.000685058631980987
"176",0.00172836672643036,0.00685340700651829,-0.0021158534777859,0.00103685495522949
"177",0.000312114035542434,-0.000342579612142551,0.0020517375143507,0.0012392258668802
"178",0.00614725438855398,-0.003279914834009,0.00589046638201231,0.00367960431566532
"179",-0.000516319035425823,-0.00311989833899289,0.000586687338691112,0.000728113501702422
"180",0.000560033351748524,-0.00382154067947141,-0.00181625753299551,-0.00352415621675246
"181",0.00199149638231435,0.00414815064978182,0.000816945103022359,-0.00061435074615847
"182",0.000269921524066997,-0.000499724643173802,0.00135910010723528,0.000753980207576955
"183",0.00378132483558705,0.00263591113879848,0.000711534107063835,0.00199768818669035
"184",0.00539904775770788,0.00387248261005853,0.00292630308504313,0.00285890970797193
"185",0.000331923813260953,0.0071603900675078,-0.00320181059271359,0.000108742686787457
"186",-6.07273729686525e-06,0.00295932655253699,-0.00132233185679203,-0.00339847053097979
"187",-0.00188138385177654,-0.00975200650785646,-0.00363451591702109,-0.00160399290592945
"188",0.000493604364728948,0.00245378408856211,0.00149905610346943,0.00101545890885465
"189",-0.00541030983609957,-0.0117834885509279,-0.00582740339367084,-0.00232839730995741
"190",-0.000159778164156191,-0.00983022653487482,-0.00731672672050229,-0.00223931734669116
"191",-0.00265251381962528,0.00749559748772306,-0.000582311110698185,-0.00328474746231405
"192",0.00130222082336547,0.00717497231780663,-0.000349218642631167,0.000266130665039645
"193",-0.000849282364363046,-0.00665475921241288,-0.00427279082398383,-0.00416187247067767
"194",-0.00245005474692244,-0.00294135186348074,-0.00482907726570795,-0.00504752405489746
"195",-0.000326792224414573,0.00970420522445686,0.00224849462292603,0.000622514776567558
"196",0.00273671087329652,0.0120682374742591,0.00019359592963551,-0.000321900292850456
"197",0.00612487175628093,-0.00218346301073398,0.000545594336735488,0.00458415229433831
"198",0.00402980912603868,-0.00153634024002494,0.000295265370766934,0.00106066981521738
"199",-0.00395870121697087,0.00496052496315694,-0.000391033699551012,-0.00225264514703239
"200",-0.00115837257695703,-0.0005490410202534,0.000391198613517397,-0.00153159553841507
"201",0.00328198157593564,0.00658421359291662,0.00863139185896676,0.00193319579413119
"202",-0.00494875341439894,-0.0104931574419591,-0.00726250730086569,-0.00553945320853528
"203",-0.000692348314235806,0.00838573786863315,0.00176036380130057,0.000684005000236262
"204",-0.00161687883655885,-0.00494326707240664,0.000446442996509325,0.000771774384527772
"205",-0.000432845674308362,0.0194002012630756,0.00465143038662305,-0.00186489499575299
"206",0.00397388949836349,0.000700991359455195,0.0085734166715958,0.00368466446578478
"207",0.00439386456418407,-0.0131808900474391,0.00399521348988444,0.00112676177648219
"208",0.0025692194135639,0.00555288188574988,-0.000117013704942404,0.000626038303459229
"209",-0.00178144033632347,-0.017137856813462,-0.00347607332842477,5.43707796969405e-05
"210",-0.00385651195450681,-0.0114068590673771,-0.00216690508007846,-0.000730412967135831
"211",0.000965981508763217,0.00379562420786951,0.00363832569877248,0.000176061985388767
"212",0.00813214998472729,0.00670133252959184,0.00589207038656531,0.00369430822179713
"213",-6.33626325456851e-05,0.0024783752460418,-0.00606876386966538,-0.00324368958518186
"214",-0.000529598628073297,-0.00936531519893386,-0.00194297358606102,0.00030737716216505
"215",-0.000461835076037588,-0.00254307633578661,-0.00163136120879066,-0.00304645704099945
"216",-0.00668374123667268,0.011905820295259,-0.00312087072081848,-0.00196251790215252
"217",0.00215454465585004,-0.00132169663679691,-0.00318401711196391,-0.00222644635975164
"218",-0.00273979612918616,-0.00161406358754732,-0.00400464091078351,-0.00283607641648687
"219",-0.000238825569896394,0.00189767105769811,0.00099760554118496,0.000973082841254776
"220",-0.00106697783224486,0.00215092881701574,0.000859471411073693,-0.000583996353320912
"221",-0.00366741156982767,-0.0046485652129695,-0.00291877948093586,-0.00250829520431336
"222",-0.00503214492930463,-0.00871167425238126,-0.0020288144312581,0.000489290154522178
"223",-0.00252505640890285,-0.000161654751302075,-0.000682834955619946,-0.00279778211544101
"224",-0.00310473285665272,-0.00486254029655688,-0.00346112586230406,-0.00239273874757911
"225",0.00511571431863794,0.0173525571371794,0.00796788931876607,0.0060066134348227
"226",-0.0030233106544358,-0.0072151279286344,0.000381765372245336,-0.00315466978706784
"227",0.00562338558912468,0.00263197355834986,0.00302479308061762,0.00235231237415714
"228",-0.0001430180376159,0.00431213735089543,-0.00178335126831359,-0.000621222165452337
"229",-0.00193597944375927,-0.00430803513638569,0.00136282282050611,0.000559197204098541
"230",-0.00434069045196174,0.00438467653013883,-0.00086139639862659,-0.00335844347841572
"231",-0.000600640946095694,-0.00158705866034259,-6.13742249402707e-05,0.000218389047250165
"232",0.00149774740051955,0.00993501557802173,0.00396466797624182,0.00392521243769543
"233",0.00116403059584257,-0.000480735911668796,-0.0017379032010567,-0.00154749735178287
"234",-0.00163943402653972,0.00397634603340213,-0.000307081633073381,-0.00187311787396461
"235",0.00011098957409302,-0.0123106098126347,-0.00220062433814982,-0.000407838648720798
"236",-0.00252068018269411,0.00374435408898716,-0.000869998900673689,-0.001496550449828
"237",-0.00313405252218791,-0.00185795782666439,-0.0055469753483667,-0.000658150964948133
"238",0.00433802529531668,0.00119017550354278,0.00572088461134839,0.00168587968414703
"239",-0.00398804843161179,-0.00397571768846825,0.00227634172548145,-0.00251133062309427
"240",0.00397526702577457,-0.00472942564108208,0.0057749326193123,0.0022022469395365
"241",3.57661577676215e-05,0.0102297410525126,0.000587264352017442,0.000537673600083475
"242",0.00320309599755554,-0.00497085462582969,0.00129947228025595,0.00335329961658184
"243",-0.00923971972542333,-0.0162496447137635,-0.00323529062187646,-0.00270846114996227
"244",0.0043281678086006,-6.87143548659293e-05,-0.00140988340657764,0.00119434981884586
"245",-0.000149292976109657,-0.00427094849914697,-0.00152089581791098,-0.00228141576957023
"246",-0.00513526808903584,0.00757628052093384,-0.00197255822747013,-0.00238132581311494
"247",-0.00101460146926291,-0.0108882356672445,-0.00472956788170088,-0.00318624541152778
"248",0.00153357499467018,0.00514949741516498,0.00336019023864397,0.000940951978521315
"249",0.00356819537543426,0.000774788061037521,0.00273688451882675,0.00146684596583731
"250",0.000644166370080563,0.000756974834590642,-0.000119027103911302,0.0012530306187969
"251",-0.000881977428013381,0.000376351385724354,-0.00310990290404786,-0.000765614569212425
"252",0.00383451841471948,0.00575889446196382,0.00716887953377727,0.00354018453155638
"253",0.0007835877008372,0.0044215020794418,0.00160555702950659,-0.000373195180062024
"254",0.00092984253505248,0.0105729625742661,0.0029685003644402,-0.000443421441349175
"255",0.00599967327693342,0.00415803360967891,0.00349732161798052,0.00187577484084947
"256",-0.00473865789054301,-0.00340945359062382,-0.00518865057115376,-0.00393583902425496
"257",0.00199952347870042,-0.0154789902836136,0.00339098165851556,0.00311823282394766
"258",-0.00493130781100532,0.000335000843200603,-0.00656791825466158,-0.0027688269024463
"259",0.00621768023684358,-0.000706910376700643,0.00644446000161814,0.00360058978583642
"260",-0.00183405161976537,-0.00222945412954944,0.000606865014218779,-0.0001980104868718
"261",-0.00235268709020179,0.00449649942071915,-0.00197105097502856,-0.00273455568623847
"262",-0.0038966632846294,0.00320896556840112,-0.0040228259243509,-0.00245321273478447
"263",-0.00106022533433787,-0.0150645562836659,-0.00377480823376674,-0.00162362133479448
"264",0.0048748399333403,-0.00236028347792331,0.00294093039278613,0.00244700188216123
"265",-0.000223586579829509,0.00110785617300385,-0.00124494426934037,-0.00180677783307041
"266",-0.00074707401855245,0.000160306613835953,-0.00644161373586744,-0.0016284003986603
"267",-0.000573367133213758,0.00370862882686601,0.00106703022579947,-0.00591401019510117
"268",-0.00101270255517244,0.0122768455134898,-0.00102635276435152,-0.00184655656448816
"269",-0.00113859545045553,0.010856259388553,-0.00167516160399393,-4.08273305659082e-05
"270",0.00543393979792311,0.0035508818284423,0.00586587779349063,0.00448988580288695
"271",-0.00319901942751327,-0.00315409356072853,-0.00524023659484381,-0.00286522773295033
"272",-0.00232602230027868,0.00393895540477456,-0.000802317734786506,-0.00201973338703222
"273",0.00415771204618657,0.0086001835407466,0.00357605295986339,0.000895013627598815
"274",-0.000606225100440365,0.00577218579219223,0.00322962267493064,-0.000543443198049984
"275",0.00170488871833649,0.0107898619071763,0.00540796653339056,0.00340370160667052
"276",-0.00110735890145435,-0.0112671668631603,-0.00107621771149105,-0.00253842895574744
"277",0.000823757896129595,-0.0103593479414864,0.00228896977359327,-0.000650192013333262
"278",0.00455408659268309,0.00494573182808697,0.00374433640783024,-9.87209846201719e-05
"279",-0.00139154786368092,-0.0127730977822723,-0.00135456541505199,-0.00398891711222041
"280",-0.00699122124028128,-0.00419095913074092,-0.00307995590732194,-0.00278626473552972
"281",-0.00168820673150624,0.00158715817742078,0.000499408906675049,-2.03631043728843e-05
"282",0.00565687628029339,0.0198869174909899,0.00689271521900443,0.0039529559329597
"283",0.0012148319848278,0.00973064473530519,0.0038769863714107,0.00232305440982787
"284",0.00227137393956275,-0.00863365590254273,0.000456225591622677,-0.00384796202558908
"285",-0.00425068428810484,-0.00425549906403446,-0.00612447622226393,-0.00691369181507006
"286",0.00707992900101573,0.0116617542226656,0.00529240438120224,0.00496518190537592
"287",-0.000885916458145283,0.00327634083378803,0.00168065319810706,0.00182128361254765
"288",0.000452863024999793,-0.00141412720673205,0.00023418953724632,-0.000305124418888835
"289",0.00704767417157057,0.0143584348415219,0.00675253524752674,0.00340309357203102
"290",-0.00252750594793976,0.00108655467961648,-0.00247097754646539,-0.00413350445326307
"291",-0.00538320718215603,0.010242261925377,-0.00578199330659907,-0.00158273805949855
"292",0.00162852078031542,0.00607412917893026,0.0012874034659312,0.0017710318645674
"293",-0.00328202002079256,-0.00865335116915671,-0.0035964702339972,-0.0011650943634274
"294",0.000123287565303398,0.0021641256929573,-0.000771861062357028,0.000374944103786882
"295",-0.0039268904417368,0.0071108429349176,-0.00374410623341712,-0.00421253567016538
"296",-0.000408591767814211,-0.0181462554724928,-0.00124765850257105,-0.00162121519207817
"297",0.00400346954803845,-0.00169591142991798,0.00688723759402466,0.00260979871010033
"298",-0.00393772913514452,-0.00169703531811276,-0.00175595254685402,-0.00297970066371172
"299",-0.00362304988389256,-0.00157160864484519,-4.48026700798267e-05,-0.00442016654337992
"300",0.000325147173628582,-0.00219329454892975,-0.00164301091135979,-0.00275081739047504
"301",0.000354866354527084,-0.0060667941443695,-0.00426367646451356,5.02706276353689e-05
"302",0.000297464990842433,0.0110884635251509,-0.000421672896645717,0.00077159626373279
"303",0.0019568473824179,0.00172335452339645,0.00666732701644548,0.0026343887987596
"304",-0.0033500869067102,-0.00427256249852801,-0.00875350594254537,-0.00255412547470458
"305",-0.00100902884861219,0.0165688835360956,0.00333954393758455,-0.000147677449587616
"306",-0.00127564229439809,-0.000766853120135066,-0.00576507955558671,-0.0034838986825522
"307",-0.00559758437976732,-0.00917851962945385,-0.00340588530818368,-0.00323530620151162
"308",0.0013260236452891,-0.00717083174989411,0.00252054415072011,0.00147641037035246
"309",-0.00540245619704252,0.00526454210068934,-0.00353601167694667,-0.00483560853897555
"310",0.00330317529667195,-0.00517314966992776,0.00351418952523557,0.00211362506510321
"311",-0.00177969334788553,0.00395126334232213,0.00162543274785387,-0.00341952969475849
"312",-0.00282982208662367,0.00458769880886897,-0.00512131767307253,-0.00311071310453275
"313",-0.00120823335502349,0.0115155442987419,0.00120057093092586,-0.000324010258185429
"314",-0.00347046696413331,0.0166877592127984,-0.000875232554074562,-0.000568897789073718
"315",0.00464287657293925,-0.00361826051155114,-0.000952123163100876,-0.000477254376463546
"316",0.00348085397412381,0.00637206800518953,0.00254318721725588,0.00499785094314008
"317",0.00165110837167615,0.000192284435571698,0.00177060541939363,-0.000735667769987632
"318",-0.000111396395814993,-0.00254818177053829,-0.00211468236157156,-0.00108599373269885
"319",-0.00154338529346623,9.44498779551425e-05,0.00215099864485557,0.00245539802761417
"320",-0.000743317876059248,-0.00216952590590742,0.00128249133132453,-0.00195357104282784
"321",0.00561817594891182,0.00214817474435419,2.61790896242693e-05,0.00454205373947616
"322",0.00045174772493947,-0.000357264650554724,-0.00538497784676497,-0.00437597147331472
"323",-0.00115208047803666,-0.00150362133321843,-0.000612757661787165,-0.000772585961815364
"324",0.000581122653851712,-0.00259012281429184,0.00161333081271489,-0.00109291825374731
"325",0.000341055241328408,0.00468620465635076,0.00180923024431839,4.19778359100533e-05
"326",0.00268819375941657,0.00108412348134211,0.00365349209020689,0.000378952720268305
"327",0.0091735531475911,0.0128456060089149,0.00469951180831613,0.00490628996948808
"328",0.00261965549094638,0.00521276079867135,-1.12516110380972e-05,0.00088363610801326
"329",-0.00359376393998149,-0.000997817370279323,-0.00340758218068211,-0.00192075754940037
"330",-0.00785298432351351,-0.00342698481351612,-0.00155219237470394,-0.00272913585027594
"331",0.00498437020236817,0.00947139383542261,0.00720547330067431,0.00220761805857978
"332",0.00843818137314663,-4.14934659787279e-05,0.0077363573352938,0.00416304294985009
"333",0.000628186613766377,0.0059174047790235,0.000975981521234076,-0.000180970388839187
"334",0.00272190687636305,0.00765815305858944,0.00596344193231299,0.00453487169626026
"335",-0.00292842371744043,-0.00821946945809575,-0.00267692566530856,-0.000890838876571676
"336",0.00574414900755937,-0.000634778780194462,0.00645569909195005,0.00239051525160231
"337",-0.00238368948670302,0.0035349120155177,-0.00122641870338299,-0.00234888457874965
"338",-0.00310026413039417,-0.00266816550414339,-0.00204283533512825,-0.000120525422033894
"339",0.000940365985545186,-0.00305632077938126,0.00178786384462515,-0.00365830670662151
"340",0.000386417883704426,0.0108102114927079,0.00425542976679981,0.00390907688391177
"341",-0.000860367182719632,0.00225804214067088,-0.00273346237842458,-0.00201960115333798
"342",0.00108121826655974,0.00670571084644115,-0.000850708533050996,-0.00379393603091208
"343",0.00561444383832666,-0.000188073150166159,0.00476038958390732,0.00217245218730394
"344",-0.000689324519777382,0.0038214210811813,-0.00191770864451394,0.000822388439619222
"345",-0.00167724646494919,0.00645616166919654,-0.000288541818927193,-0.00183043896673165
"346",-0.00182469294729446,0.000486508035476134,0.00297388422169974,0.001658571725729
"347",0.00358004998694621,0.00116827654877056,0.0066309156531032,0.0046224376523531
"348",0.000884743082498729,0.0125711993054076,0.000632156110678263,0.00101463358855377
"349",0.00273000327285283,0.00500891884908737,0.00102289298958216,0.000458167499504884
"350",0.000645978869248125,-0.00494241358609298,-0.000540840379308455,0.000336245151635252
"351",0.00457040841435048,0.00391896791788782,0.00286533348652294,0.00072414168712751
"352",9.2541828460118e-05,0.00379104730429531,-0.002993013177302,-0.000993981305950204
"353",0.00153379167461853,-0.00505790261720509,0.000169220161867503,0.000828593892637387
"354",-0.00205174144638573,0.00175127360090326,0.000288548504682871,-0.00419109788030585
"355",0.00194487330766958,0.00351562355703892,0.00301022505016911,0.00106205022052598
"356",0.00100719626374032,-0.00687404852445468,0.00202145582089702,0.000492959007489495
"357",0.000188690345496026,0.00490154509355626,-0.000401519424205654,-0.000871671041049271
"358",0.000153837786535948,-0.000857948706166862,-0.00294717145020107,-0.0014614723630627
"359",0.0054995102995297,0.000868459702179337,0.00239624856639902,0.00327688044288282
"360",0.00292169484166888,0.00850390046732251,0.00151864846670947,0.00199992971569064
"361",0.00622748210143686,0.0141944803834336,0.00129781472633403,0.00549209043281422
"362",-0.00282846924632214,-0.0003138909938715,0.000426262729105209,-0.00216586164398745
"363",0.00120529175307469,0.00151163716671465,0.00151364843882998,0.00158962191310418
"364",0.000405678271738935,0.000768274892185065,-0.00605863475069335,-0.00226301696132096
"365",0.00188612233305722,-0.00182551155067597,0.000981497651708034,-0.00165008212697497
"366",-0.00130053163560087,0.00470135745172314,-0.00149211500104323,-0.00375220323121056
"367",-0.00483942705918334,0.0113147389661381,-0.000215446776844748,-0.00292551804265598
"368",-0.00106609770339952,0.00765434315200815,-0.000887983243850816,-0.000376809056445387
"369",0.00155580050325672,0.00198574955862367,-0.00147101970804138,0.000385495739954696
"370",0.00364290182609654,-0.00384864266689686,0.00169924520531029,0.000329710929755233
"371",0.000278707545988771,-0.00128493968113975,0.00410209588882951,-0.000260376485742432
"372",-1.18051722773627e-05,-0.00744383267005344,0.000660280804238149,0.000414227050685055
"373",-0.00615076170706216,0.00841053850430234,-0.00196007898785489,-0.00301500067491466
"374",0.00420561705867265,-0.000499119283340713,0.000375992429145983,0.0016518012449263
"375",0.00420608456093151,-0.00814514261184424,0.00106202358310228,0.000338778004791419
"376",0.000502713291312707,-0.0032728215505314,-0.0022475726744233,-0.000424519879929594
"377",0.000683040293819995,0.00794333124602149,-0.0022832559850163,-0.000248202823579293
"378",-0.00284725045205952,-0.00590589004852296,-0.00343417788816707,-0.00258059270492977
"379",-0.00157418271230058,0.00466064688694092,-0.00134561260329309,-0.000459628958660079
"380",-0.00123360893760244,-0.00485950109108669,-0.000257010001646532,0.00271463289655077
"381",0.00278494371519393,0.00611865850467605,0.00503909613435358,0.00086195524529423
"382",0.00307018109765323,0.00347557601844284,0.00495059487274417,-0.00197362384310048
"383",-0.00155632573175165,-0.0131020283655196,-0.00758497962922911,-0.0033445173086706
"384",-0.000469440999420504,-0.00615383454332336,-0.00301637910093597,-0.00321801086846814
"385",-0.00400939639001211,-0.0116145427080868,-0.00741358842858421,-0.00472079124840539
"386",-0.00188988147034052,-0.00273708235744346,-0.00204419060170343,-0.00155849820211952
"387",0.00337404593658614,0.0152854875253087,0.00251986977493056,0.00251028021631638
"388",0.00367548700679465,-0.00460675057644421,-0.00282313856736373,-0.00148051341595102
"389",-0.00463450348246972,-0.00199751470079872,0.000995567275011894,-0.00225132472578055
"390",-0.00421913817933246,-0.00162568618453038,5.20355540787436e-05,-0.00341227865151574
"391",0.00100107491197342,-0.00175480153118592,0.00497845681191803,0.00228002767732887
"392",-0.00282225125205482,-0.00358249343767976,0.0010664580969848,-0.00317528080575805
"393",-8.35235094150209e-05,0.00327686986376416,0.00357281503145028,0.00160610313008924
"394",0.0007486908725046,0.00174468192834933,-0.000483572150176284,0.000635074377203502
"395",-0.00672914822103078,-0.00853949780788712,-0.00862430532996504,-0.00526125537870176
"396",0.00329018343086147,-0.000138035593492994,-0.0032718023800518,-2.39509806579767e-05
"397",0.00363397106418303,0.00901750031410953,0.00154743883197317,-0.000510249654904368
"398",0.00269834643156751,-0.000429734092342515,0.00114018611714708,0.000504026222573345
"399",-0.000390886608661043,0.0063310018241758,0.000547354619680942,-0.000378312599593193
"400",-0.000645949313575223,0.00348036668102583,0.00233106518660426,0.000545491074063218
"401",-0.00124767017995264,0.00274562969166214,-0.000204047428338686,0.00156783555110906
"402",0.00150424172945966,0.00649506350977442,-0.000872027898375047,0.000490664038661853
"403",-0.00556950749257787,-0.0104081036876691,-0.00419832927112385,-0.00536801781952679
"404",0.000828999313646979,0.00545167815960647,0.00336615673532863,0.00164517121310109
"405",-0.00367631181820814,-0.0128193469744331,-0.00658848210442364,-0.00475735386817046
"406",0.00592806356243473,0.00653517466308599,0.00804509895938781,0.0054058258139326
"407",0.00188778890423468,0.00414845706335652,0.00441060063654954,0.000632883535844078
"408",0.000823338976719835,-0.00645256259930893,-0.00356624712481761,-0.0024531227432594
"409",0.000778795571977945,0.00248739269206822,0.000758111563692807,-0.000316802176197771
"410",-0.00713063949044202,-0.00935277937641043,-0.00741699418589624,-0.00474360760470626
"411",-0.00637652134772489,-0.00532553120776864,-0.0046470760141995,-0.00296541367424759
"412",-0.00215431025297022,6.39080514789996e-05,-0.00336438884952284,0.000153700830962434
"413",-0.0052252980905566,-0.00338816483204053,-0.0061571804222339,-0.00362095372319153
"414",-0.00330905184549869,0.00838079632889793,0.0029096343519309,-0.0029538462066232
"415",0.00444338840002289,-0.00591373933168396,0.00274473985104894,-0.00071984336582669
"416",0.00729260775797983,0.0157090569757603,0.00348909806032182,0.00155210617673745
"417",0.00118384293040485,0.00282572633762884,-0.00173409472428589,5.97039813243928e-05
"418",-0.00188972235528935,-0.00472333855855907,-0.00579614356630995,-0.00557003544210359
"419",0.00288518063326451,0.0109241858823764,0.00403709696438644,-0.000162530087961467
"420",-0.00222434311490896,0.00345276592251939,0.000221886066488529,-0.0020762672507379
"421",-0.00196097568394566,-0.00392323402141755,-0.0044382132987866,-0.00311680223758122
"422",0.00192132147330016,-0.0077534541218086,-0.00303769132078404,0.000967014984808438
"423",-0.00256334614116659,-0.000646966814409171,-0.0018278492475006,-0.00137647524160781
"424",-0.00703020070280131,-0.0116491462360556,-0.00183585463837056,-0.00443964514592269
"425",-0.00073050838708304,0.00345323765295884,-0.00393860238645228,-0.000728411647396555
"426",-0.00267407726639197,-0.0080987227027747,-4.41979514332821e-05,-0.00433289495843373
"427",-0.0011466866562313,0.00567847403341718,-0.00484494365428929,-0.000321262918461674
"428",-0.00109984279122768,-0.00911394933269789,-0.00240421000097365,0.00108711960608332
"429",-0.00189408747324375,-0.00666294433808949,-0.00153384749315566,-0.000630450771992664
"430",0.00298541261964123,-0.00291967287536387,0.00380952674410812,0.00148247533725767
"431",0.000206964573865988,-0.0027467872669306,0.00293443631755579,0.00149616831385983
"432",-0.00404749543255444,-0.00156466321463216,0.00319567188469421,-0.00181901509591219
"433",0.000123117673741964,0.00697537755099596,0.000172006831809082,-0.00181280113307556
"434",-0.00326751936473904,0.000192556011028354,-0.00401175522177583,-0.00458860074590645
"435",-0.00230105554125316,0.0139856588348139,0.000462294125590249,-0.000911170459334613
"436",-0.00325633088777521,-0.00405170248156479,-0.00129938466541133,-0.000191493862287475
"437",0.00183511893998476,0.00514137643921367,0.00389070716190542,0.000511178525970971
"438",0.000204703527606587,0.00927675118841418,0.00427922005010083,-0.000260171024813658
"439",0.0029750613747974,0.000438617303987912,0.000203318783768358,-0.00116720893756857
"440",-0.00341743483144419,-0.00104660558481053,-0.00418961331487004,-0.00090023835650288
"441",-0.00159773655508529,-0.00658503641355974,-0.00194528738879642,-0.00353512000061969
"442",0.00182437932931739,-0.00177945146388419,0.00578907878655857,0.000548924450141682
"443",0.00103209176352917,0.00831521808662991,0.000287305314265693,-4.91516208212823e-05
"444",-0.0012804866030194,-0.0043751830560067,0.00150542968256431,-0.000437379790158536
"445",-0.00712111266027213,0.00176958082128733,-0.00429828958571728,-0.00286130059150089
"446",-0.000311709445806267,-0.0116364937342842,0.000815128639491115,0.000374454952121826
"447",0.00490956540215447,0.00614930606052584,0.00605288728663279,0.00370969532642155
"448",0.00126609953594653,0.00256926987712012,0.00583013447610231,0.00498482210057522
"449",3.82380532356775e-05,-0.00382168819569332,-0.00194426457138894,0.00049104966240693
"450",-0.00097273713286628,0.0117302787711664,0.00367385395342976,-0.000235054786727685
"451",-0.000452431124301425,0.00841527524392543,-0.0033356746995198,-0.00197580490771003
"452",-0.00391015204752131,-0.0049511409875574,-0.00163089119437887,-0.00369408732264052
"453",-0.00482755993487398,0.00182675410364131,-0.00136546305462855,-0.00282675703419366
"454",0.00554301771127801,0.0106570760040241,0.00541475562227413,0.00432950494764596
"455",-0.00189657673748456,-0.00457691017454921,-0.000875899595203405,-0.00448198228788145
"456",0.00238846909950066,0.0126684850366142,-0.00028414894825517,-7.24199069730702e-06
"457",-0.00121414429507005,-0.00575104246289005,0.00141247707262595,-0.00182158220232014
"458",0.00640236040302122,-0.010941121750842,0.00614027963891105,0.00401130245711197
"459",-0.00283195144450414,-0.00515950910529458,-0.00550317767623802,-0.00308040297562835
"460",-0.0014536451759412,0.0045398641140842,-0.00425468364627693,-0.00327489836777075
"461",-0.00585787762997982,0.00486839825354262,-0.00265121640156918,-0.00219262316920035
"462",-0.00240463586228626,-0.0127971480057543,-0.00614218177262689,-0.00456866750587221
"463",0.00735964017109025,0.000675869709555462,0.00187450102363071,0.00248357542797186
"464",0.00145268332514524,-0.00917611205223907,-0.000692790624270058,-0.000430568406581476
"465",0.00280093214827504,0.00531795552594673,0.000205907619006809,0.00226762500916218
"466",0.00218474158245324,0.0145728699643127,0.00249499204742442,0.00262688782648698
"467",-0.00317437455486567,-0.000503517822313532,-0.00183362930228609,-0.00302920454562389
"468",3.88493413648692e-05,-0.00525826553705032,-0.00233797794396843,0.000182090636825939
"469",0.00203032092446528,0.0122341603821584,0.0021639016172008,0.00304363057356326
"470",0.00282720155670207,0.000145336496504769,0.00185833131701138,0.00343644646400261
"471",-0.000329781094493218,0.00569157749761967,0.00244315178099114,-0.00040615853487381
"472",-0.00351859414105244,0.00693309600272741,0.00182018191431781,-0.0030975911904464
"473",0.0037111879272972,0.0105635328791704,-0.00080171278539001,-0.00027346264164794
"474",-0.00109790880568964,-0.00792528928904299,-0.00513532251996045,-0.0042902818078912
"475",-0.00584132801274569,-0.0209610103948326,-0.00877296225081216,-0.00395323164521126
"476",0.00397949264585598,-0.00101424240013611,0.00290297411193341,0.000616956588629843
"477",0.00280042766598411,0.00536958173249961,0.00216561196956831,0.00111518498988208
"478",-0.000291556024547149,0.0111153970344953,0.0026384872230312,-0.000895684751244009
"479",-0.00557275700054705,-0.0145818545503895,-0.000668247558296899,-0.00508170074244828
"480",-0.00273503005646949,-0.00454483942584289,-0.000929465478677059,-0.00102056843893035
"481",0.00236465756812628,0.0135229763502469,0.00344539115573168,0.00138405001297011
"482",-0.000131281805572358,-0.00561794561468769,-0.00202551597827413,0.000824118302564826
"483",0.0076928939809112,-0.0110143069897138,0.00476977037493989,0.00401840250594458
"484",0.00571735062159261,0.00981339708161233,0.00300350334763027,0.00463862700719788
"485",0.000352666484062476,-0.0098348564682271,0.000429696449954229,-0.00238652060605667
"486",0.00132729892523373,0.00151826134376905,0.000282094092539953,0.00153922535611133
"487",-9.64665513420813e-05,-0.00455946537414869,-0.00050157872749924,0.00317529050961852
"488",0.00613420657706285,0.00423597928040206,-0.000820928719391061,0.00163776171382659
"489",0.00166512501257144,0.00210266012527962,0.0042549479779355,0.00322566687762531
"490",-0.00347041948032782,-0.0145032298454714,-0.00767308643316507,-0.0016216188312537
"491",0.0032450049157892,0.000138201776155025,0.000501410710487126,0.00135227564178523
"492",-0.000980201501389878,0.0121048382256081,0.0013051739784353,-0.00127723475597535
"493",0.002747754202777,-0.00059077222637201,0.000831146443742674,0.00103427915224022
"494",-0.00238144833931304,0.00549894708350715,-0.00279960086165638,-0.00224463600847155
"495",0.00408465428295361,0.00893293455475859,0.00475294726564747,0.00363764728080788
"496",0.00254832393474359,0.00126708692612722,0.00149360178638498,0.00166319800400747
"497",-0.00365433975711651,-0.00143286316875992,0.0015743375580221,0.00065772462239831
"498",-0.000824697669069905,0.0168297719496657,0.00163558416877513,0.00121498404115669
"499",-0.00166657865641217,-0.00348941669581624,-0.00236690832054737,-0.00195236507293003
"500",-0.004263316367424,0.00348389605034322,-0.00308575863072082,-0.00310481585364809
