"","grid","property","county","pixel"
"1",0.00482233393512469,0.00277674648254508,0.00431868178108549,0.000290177431393604
"2",-0.00261323594804858,-0.0132935549957168,-0.00610884264162645,-0.00559970126535926
"3",0.011227277465903,0.0075347631365985,0.00104263115436965,0.00756131722617709
"4",-0.00919157382017378,0.00037934518921464,-0.00806483228817022,-0.01570433344326
"5",-0.00387617202808807,-0.00408903131141546,-0.00461813271700751,-0.00451945964354281
"6",0.0115263681669598,0.00375442108345358,0.0139646986756826,0.0260132784318362
"7",0.00831235211472692,0.00553837990070707,0.00735916038158586,0.00943725403671478
"8",0.00361677082947399,0.00341137776396321,-0.0039318387099687,-0.00385187777282812
"9",-0.00461124377547755,-0.0105936006226831,-0.013585558596858,-0.0101660747350546
"10",-0.0193769454669057,-0.00916537335761769,-0.0140546621230724,-0.021493499229896
"11",0.00314503147759682,0.0047045505488272,0.0036999372937826,0.00319751293747416
"12",-0.00330268951472086,-4.28752793309884e-05,0.00384245309593255,-0.00135428856735875
"13",-0.00356640139267511,0.000353530716185253,0.00225598202403238,-0.00308377634932441
"14",-0.0140919832744929,-0.0182243077053118,-0.0186863585617848,-0.0176739863260123
"15",-0.00339291496253019,0.000953573094123547,-0.00144700177848787,-0.00434200336992945
"16",-0.025809563260938,-0.015149709181535,-0.00794428473472492,-0.0269445386626248
"17",0.000741255629143121,-0.0101231766258524,-0.00334792094574887,-0.00309087542128005
"18",-0.0148515591431886,-0.0093522771769876,-0.0060324659642978,-0.0266037392118417
"19",0.0119671768065488,0.00579095960924325,0.0116417142383946,0.0109589481750318
"20",-0.000690525252673888,0.00150113565802579,0.00210088688300001,-0.00166598324428632
"21",0.0012952608012813,-0.0113367692473545,-0.000648812288965801,0.000748598828533571
"22",0.0202188931107627,0.00713081370331866,0.0166788403749573,0.022447715680534
"23",0.0120147472944897,0.0109601676802146,0.0137715907817585,0.0117049128536037
"24",-0.0026281104946281,0.00342058689593642,-0.00683611663658289,-0.000954933752044029
"25",-0.00811896450583846,0.000274700027482188,0.00182797821444008,-0.00319175907367596
"26",0.0117372604549884,0.00747105740300385,0.00710954832352487,0.0104096540604992
"27",0.0027486496730373,0.01856341733581,0.00895591917635469,0.00445406908527415
"28",0.00518495131568257,0.00183129163241143,0.0101607468487988,0.00275409847927409
"29",-0.0374442105645123,-0.0177136582045857,-0.0329720078560369,-0.041398702667478
"30",0.00875181098412199,0.0109437152586499,0.0080758770703176,0.00930314269282315
"31",-0.00959913203563806,-0.000755733092596116,-0.0124264491986369,-0.0232106172961908
"32",-0.0123241999719111,-0.012915375264379,-0.013449673630975,-0.0198220770576516
"33",-0.0076057966962887,-0.0105697918816865,-0.00480589515316465,-0.00704990554386062
"34",0.00741081946522592,0.0104543515580065,0.00948497483160876,0.00737039585656722
"35",0.0163251962117476,0.0158196832897073,0.00581554840745568,0.0117283557507809
"36",-0.0300146575269836,-0.0316996735445854,-0.0265138499266416,-0.0393031417666587
"37",-0.00377806290998602,-0.00206656178984586,-0.00213500812552263,-0.0045592254604945
"38",-0.00376497195373683,-0.00578727364686036,0.00183434877592535,-0.00314875976928017
"39",0.00417190918964303,-0.00453955537143193,-0.0002539768294108,0.00802981350895017
"40",0.0283299171077936,0.0164261580725713,0.0268061055964894,0.0302638494093839
"41",-0.0055440427453337,-0.00677268083878895,-0.00764200748899725,-0.00962141418534912
"42",0.000254074743897881,-0.000170886079370686,-0.000211738421274137,-0.00480881635409118
"43",-0.0127366466891251,-0.00540825863054851,-0.0130101022815638,-0.01906154975056
"44",0.00604512626587906,0.00761681165446976,0.00377861042486396,0.00529573821501562
"45",-0.00174771579970221,-0.000727277960975402,0.00212189338237933,-0.00723056163308636
"46",-0.0069163190467708,-0.0107830931455187,-0.00715066952857075,-0.00570715817580056
"47",-0.0072451280759682,-0.00796332741673235,0.0118368040539194,0.00414744454429147
"48",-0.0122253864708878,-0.00869013685946695,-0.00932104571994391,-0.01704503320751
"49",-0.0369695245750153,0.00466624871098289,-0.0185472038294519,-0.0549686356628572
"50",0.00662372804743732,-0.00110447406614558,-0.00142091887520347,0.00649733564887754
"51",0.00217915558534015,0.00532129015269146,0.0023285065316364,-0.00113632644452351
"52",-0.00644014411220588,-0.000218514072971925,-0.00190007606391702,-0.0179118425904705
"53",-0.00309612301340152,0.00185106360774564,0.000148122158301593,-0.00920055759323882
"54",0.00152721712286484,-0.00263176453204586,-0.00395766775757488,-0.00612498853745146
"55",-0.0119589762614295,-0.00246821067776335,-0.0199713247467411,-0.0207455548730387
"56",0.0104033215749157,0.00572649290588613,0.0106642849260031,0.00952491309438415
"57",-0.00444394688606213,-0.0248608164282769,-0.00671609889901522,-0.0131200728286781
"58",-0.0113774552388296,-0.0168079281097892,-0.0161795497960623,-0.0166632345277725
"59",-0.00655174426050578,-0.00967296863787616,-0.00218685996991755,-0.0123690394023536
"60",0.0020750012167187,0.00184003006067415,0.00219635673349015,0.0020224995970398
"61",-0.0114095634263396,-0.00902117484759376,-0.00851817732807289,-0.0119820430046273
"62",-0.0149036364100304,-0.00724658797034491,-0.0121612649787081,-0.0163515770077738
"63",0.00881612440999156,0.00874295011214278,-0.00232878104177054,0.00581112843781949
"64",0.0147703314624689,-0.00703797561976506,0.0171903720271347,0.018695405862478
"65",-0.0013559718107909,-0.0117405485271714,-0.0104150752372668,-0.00447994300017054
"66",0.00447569101925647,8.37662436505258e-05,0.00474329290094216,0.00324167883495219
"67",-0.0181452498623712,-0.0343555023215496,-0.0412463433252633,-0.0306086348415601
"68",-0.00358610864990554,-0.000979594981292128,0.00785710886962953,0.00639203657519853
"69",-0.00766227147836106,0.000390591902202423,-0.00746204467015626,-0.00977341761419691
"70",-0.00487938502200718,0.00280575174115018,0.00191851929154735,-0.00541878094927221
"71",-0.00701026022129681,-0.00429779164659998,-0.00326128963847349,-0.011970383167451
"72",0.00668812208300056,0.00279619413803524,0.00500467984274912,0.00549123550867839
"73",8.45305207852996e-05,-0.00162971649154298,-0.00658807823566087,-0.011748586716263
"74",-0.0137602693561602,-0.00634407687625991,-0.0102044543605646,-0.0238198540215818
"75",-0.00131098222231193,-0.00304856249084566,-0.00243905073230475,-0.0154119443453929
"76",0.00175319777201584,-0.00813171633847611,-0.000427026791601143,0.00346156864134091
"77",0.00805114054001885,0.00568426213430839,0.0017322049550687,-0.000595104156811369
"78",0.00109942712804676,-0.0258914973219076,0.000388439149711289,-0.00701289176299
"79",-0.0117041685173124,-0.0196977171494939,-0.0140939515371704,-0.0209001952536415
"80",-0.00974067578822456,-0.00648319392464557,-0.00237347658195637,-0.0176251804482201
"81",0.00592861789002777,-0.00128605517899842,0.0078897860011552,0.00890622624613837
"82",-0.00828947564976911,-0.00459638825295794,-0.00375184065574827,-0.00546087796084577
"83",-0.0149427774795985,-0.00156897898496386,-0.0128903596077726,-0.0249243473753402
"84",0.0101788790515893,0.00449530051049189,0.00841008279544057,0.0106315709023165
"85",0.00516079227384525,-0.00227565123758667,0.000572816575235162,0.002845279274129
"86",-0.00958830976621956,-0.0146840223790703,-0.00750387048913751,-0.0140992673966637
"87",-0.00691038873248393,-0.0122470118866622,-0.00506452224775437,-0.0050617446344646
"88",-0.0017881523312074,-0.0242656974794782,-0.00261312206966354,0.00575255792856026
"89",-0.00717447276005172,-0.0084793073855378,-0.0293833187209054,-0.0186877681615002
"90",0.0184534834264496,0.0151922641735579,0.0187632744295678,0.0175036050953351
"91",-0.0183305602655989,-0.0239606790362099,-0.0199464928325776,-0.0258636504152574
"92",-0.0037495866268955,0.0111383550825453,-0.0152282256542567,-0.0200957314479473
"93",0.0035303493567433,0.0058790567424811,0.0080999234058536,0.00505260862991281
"94",0.00732146574791199,0.00392976456254462,0.00972448023907781,0.0106620426559337
"95",-0.0204979701532338,0.00144842741065896,-0.0143406531113136,-0.0333765426261846
"96",0.00107296653677672,0.00952929093778611,0.00610752717269932,-0.0084648729034548
"97",0.00796721610761327,0.00425226010847727,0.00784757647378348,0.0107775830300467
"98",0.0027983074806593,0.00526643192640193,0.00320940954572031,0.00454726267395467
"99",-0.00298803688639719,0.0030361876859619,-0.00338361405246877,-0.00238271823979538
"100",-0.000412685082463268,-0.00722633188956674,0.00589700613998969,-0.00666381507050948
"101",0.00933552582613834,0.00681617429473097,0.0104733223029084,0.00824279419374631
"102",-0.00352139099495847,0.00142222241707783,0.00534866878379558,-0.00513391216105562
"103",-0.0115479126496794,-0.00728225626048028,-0.000898159642271135,-0.0118223909665035
"104",-0.0157992722899702,-0.0113197316070401,-0.0201669518262063,-0.0263649418082633
"105",-0.00117693103804287,0.00234320148105174,9.38779481936495e-05,-0.00230791516824615
"106",0.0138498402063813,0.00479173108121786,0.0110684586295903,0.010266401081373
"107",-0.00214304215009475,0.00248843322973548,-0.00741887806436982,-0.0104846388861303
"108",0.00761045725705945,0.013546501602069,0.00705212830551994,0.00870636295150835
"109",-0.0151545113301346,-0.0135210453207288,-0.0114270608329391,-0.0220299542941034
"110",0.00306498130364941,-0.0117325885525696,0.00123903973183338,0.000764644422725544
"111",0.0179357493185076,0.00834682954832974,0.020003718889087,0.0257386542444725
"112",-0.00136897059399617,-0.0113685859399692,-0.0225957331164033,-0.0119489652009907
"113",0.0097319621301712,0.000876826351669335,0.00650710179145159,0.00708665721443757
"114",-0.0160851257682183,-0.0136261607905712,-0.00825568416473929,-0.0162215622421179
"115",-0.0321444059921168,-0.0237816344378475,-0.0235366713650231,-0.0312891772007748
"116",-0.00516148306708333,-0.00276400652126465,-0.0045658624630204,-0.00522884581796022
"117",-0.0056355102873813,-0.00539277398364865,-0.00157397708176508,-0.00725481583111001
"118",0.00774646059573188,0.00403482217885154,0.00397677362630901,0.00591303954362745
"119",0.0123098040513148,-0.000317382767296769,0.00354682268033228,0.0117301899571897
"120",8.17657540350993e-05,0.0138177475810121,-0.000314646028836506,-0.000759474630925377
"121",-0.0207084832131952,-0.00607133038887349,-0.0256706656233107,-0.0281267933404725
"122",-0.00255377298087361,0.000610833699935207,-0.00331035798684682,-0.010426681824183
"123",0.0061059386982254,0.00519812735621849,0.00339674686422357,0.00553701869915745
"124",0.0206267601891323,0.0141517908693619,0.0184161586465411,0.0301414123016026
"125",0.00805078904624862,0.0125810039478749,0.00930824874035725,0.00623809190413636
"126",0.000596468933303671,0.00380122575593652,0.00346511740485568,0.00389326233698349
"127",0.0118372048178561,0.00261989465910984,0.00239916844636052,0.00866315270905287
"128",-0.0104081842311842,0.00172830245181673,-0.00331357831272404,-0.0169891924031582
"129",0.00292415171328403,-0.00891145466547346,0.000258909534467907,0.00118917942643522
"130",-0.00360447293038877,-0.00598064358786562,-0.00785906881937841,0.00205439741620272
"131",0.00774480270292833,0.007593491150224,-0.000862456590664744,0.00245985109844411
"132",-0.00135423909216072,0.00453760486560644,0.0109472504445676,-0.00843511254396148
"133",0.00345114789277753,0.00836577773064736,-0.0178035419259573,-0.00727876258984602
"134",0.0145710911189453,0.0113837244486541,0.0119661515224564,0.0115693388729894
"135",-0.0209977115473721,-0.0155010208426357,-0.0225454152676076,-0.0378965520717461
"136",-0.0187703145483402,-0.0125421143375491,-0.017865085939079,-0.0224906761227507
"137",0.00171945424584316,0.00195607368190738,0.00189010743370197,0.00127035715192619
"138",-0.0136826277312205,-0.0260608626830442,-0.0113515506869255,-0.022607647177829
"139",-0.03374008720441,-0.0135454649794923,-0.011800335400415,-0.0294392066017395
"140",0.0183491870376061,0.02043621420341,0.0159401590370956,0.0245846088294245
"141",0.00751703733223012,0.0016879475696985,0.00851969339396443,0.0115272081138103
"142",0.0144862801700323,0.00537612393264592,0.00963360043463302,0.0141172475278363
"143",0.00553334270607912,-0.00395441124054942,-0.0016589088386812,0.00341611763467548
"144",0.00161286336978164,0.00144938380379942,-0.0150875199681299,-0.0129025616600033
"145",-0.0110384785946219,-0.00347370175732481,-0.00443702562934497,-0.0134234942920012
"146",0.0227853728865151,0.0239119518931778,0.0165152002516096,0.0342525887007994
"147",0.0120821771610908,-0.00313252176918955,0.0136808523053448,0.00972057418836893
"148",-0.00157969564791143,-0.0076023092883908,-0.00672538592964633,-0.00592603148436546
"149",-0.0102190077864491,-0.0181028400931569,-0.00360024556402641,-0.0145848409427238
"150",0.00778959088642796,0.00153664400418411,0.008023670571315,0.0078373190578107
"151",0.011617481231393,0.0103950270021934,0.00989418447724544,0.0109251054116944
"152",0.00357426693625904,0.00511956905563022,0.00428051114200707,0.00344784978974608
"153",-0.00867776160531556,-0.00548347652313403,-0.0103227326966547,-0.0134902183188969
"154",-0.00283908536947345,0.00366128157360505,-0.000511092698259719,-0.00471212411439825
"155",-0.00348532307937822,-0.0022472397386667,-0.00271935149712484,-0.00433857911340186
"156",-0.0418012487765374,-0.0239223038408538,-0.0305705029421204,-0.0688203813132265
"157",-0.0388354613583939,-0.0260586798939696,-0.0325653097804121,-0.0639548416757357
"158",0.00377879433216073,0.00268463554410399,0.00629862937834944,0.00460940516095435
"159",-0.0366273492917481,-0.0166010477766512,-0.0385011733788821,-0.0515637036491715
"160",0.0143180399227271,0.00503164765195452,0.015164740537789,0.0159108762195289
"161",0.00216986961277248,0.00202119012913755,-0.00106145742013304,-0.000581001401269064
"162",-0.0168313333635411,-0.009669805891102,-0.0054598441873784,-0.0153444162317341
"163",-0.00683946476316426,-0.00126339907010608,-4.90507560488643e-05,-0.00606120748258551
"164",-0.0469398581495354,-0.0336971000793657,-0.0334801810042892,-0.0565702400628891
"165",-0.0132872048899436,-0.00662968709692094,-0.0108451183186138,-0.0223831431273119
"166",-0.00173069496061792,-0.00158397791944818,-0.00194209596888572,-0.00209044911079695
"167",-0.00303762062908064,-0.00997899754845273,-0.0011462286569577,-0.00691596647580749
"168",-0.000423641124311112,-0.00275874606488683,-0.00154295580866203,-0.00165789305325979
"169",0.00563750265614958,0.00154087056517879,0.00684974889053815,0.00598683122514353
"170",-0.0187338163948147,-0.0156134583128852,-0.0180712086489918,-0.0241520181781812
"171",-0.00303275566999273,-0.00454017197388148,-0.0078122884313128,-0.00854318083013184
"172",0.0341909634596814,0.0253027977340838,0.0386656701844862,0.0542371704575787
"173",-0.0020464999837991,0.00505106350364663,0.00800801524924249,-0.00276482646355367
"174",-0.0157030673987739,-0.014823914188013,-0.00974148255711992,-0.0126894491790523
"175",-0.0325483218306445,-0.00075157438066749,-0.0182354235498443,-0.0483952217896069
"176",-0.00289308104539541,-0.00785657473199475,-0.00560545674418752,-0.00430531921030493
"177",-0.00941196304783177,-0.00368260109255452,-0.0180170889401815,-0.019988482185668
"178",-0.000967808577528895,0.00364316002793994,-0.00465605983375912,-0.00226550920317095
"179",0.00208958509343046,3.45546294263054e-05,-0.0104703572977875,-0.010372475785667
"180",-0.0250835860853355,-0.0216270061569955,-0.0208205513882052,-0.0364629108821049
"181",-0.00339468821959941,-0.000919311005581005,-0.000840342427163332,-0.0054964215315579
"182",0.0050665286959458,-0.0118032987861676,-0.000957717802664451,0.000896919659148884
"183",0.000535821483784523,0.00973807641252438,-0.0071616096889139,-0.00619561689441368
"184",-0.0156383360448083,-0.00905172103162314,-0.0135771358208874,-0.0174538135887211
"185",-0.0402709225076055,-0.0364058121335535,-0.0518298239306828,-0.0591652034239668
"186",-0.0213588840295987,-0.00860695955751699,-0.0150568475702394,-0.029222326470987
"187",-0.0067144499792508,-0.0345803725429812,0.00135619664164978,0.0032937659886194
"188",-0.0351867955819978,-0.00795460215560911,-0.0181180006175392,-0.0408207339515439
"189",-0.00312356290656275,-0.0221033545701392,-0.0130566087336441,-0.0105437739664094
"190",-0.0167617269634245,-0.0151732974284993,-0.0247772299036522,-0.0304396419318513
"191",0.00636123619073562,-0.00912820711461709,0.00795023251355344,0.00825234440620064
"192",-0.00556815098176684,-0.0137751832571111,-0.00462771603929913,-0.00686333628587403
"193",0.00254638486190033,0.00613067622412176,0.00540065891528598,0.00229968765460266
"194",0.0110554853937158,0.000944841570561175,0.0113190304339421,0.011148900391959
"195",-0.0220669480186333,-0.00693323866347695,-0.0235517243037315,-0.0312087578565892
"196",0.00450054217131519,-0.0041951636241406,0.00107059625866265,0.00490323144358843
"197",-0.0188883264031748,-0.00926007997721703,-0.0137338345329029,-0.0293095085443454
"198",0.00791740973342685,0.0113962697901835,0.0070770845521119,0.0133690921108585
"199",-0.000453041312145618,0.00046999881252739,0.00184159656477966,0.00262930783019512
"200",-0.0282447522548596,0.00631895896136781,-0.0124483244153157,-0.036839118728736
